[0.1208124202284353, 0.04380617179964246, 0.5375552006035753, 0.1940981671296449, -0.25435788568825357, -0.9255286414611703, -0.9968128350083065, 0.3050495110652722, -0.628283151919666, -0.6831747359619429, 0.0165252981179409, -0.3268691655620135, -0.12089846928344276, -0.23023585315268935, 0.8506834357893719, -0.13923452364361566, -0.03783373581246541, 0.7563452150985481, -0.22254955580425542, 0.6825975764948067, -0.2554226582422592, 0.07210155108730687, -0.08402791588337055, 0.1206411946753514, 0.7695156172023984, -0.07207892578462771, 0.4161623189053021, -0.9302764507451113, 0.9176639626841159, 0.8051483855522625, -0.9204799300695418, -0.8497856412402476, 0.8783328520800777, 0.9632198619789347, -0.28956346492404306, 0.2554890539369208, 0.3473075123847376, 0.6323018776666753, 0.47120338148346974, 0.28654280378899566, -0.7667581568010085, 0.998643099812595, -0.21548241855228323, -0.08120328042829394, -0.06658776218825535, -0.11318713524325563, -0.38364426727876966, 0.6981959059762262, -0.16607171601233403, 0.6503690007420486, 0.4882992767794352, 0.8943757122042704, 0.2165485409958927, 0.8509158829732688, 0.6193997343476259, 0.09835167772884866, 0.5959411642652795, 0.1450459716385486, -0.3377991760957224, -0.7977627172926933, -0.2914702309403432, 0.9607876892155145, 0.7422894883366662, -0.5740744076546016, 0.7696059761820215, -0.7777540585089338, -0.4888650773381746, 0.7515062461537467, 0.8178399758356218, 0.28490678813763237, 0.5533646667071046, 0.7958299548986323, 0.011094995495478028, -0.7450320459566702, -0.46460373075788475, -0.6236653567929233, -0.6550445219638192, -0.0548529348056046, -0.20109940696052075, -0.39610355842542067, -0.3646272252739907, -0.9245077048348437, -0.26155487312518066, 0.8241515656142873, -0.8421964990338694, -0.03493625221497432, -0.14317180398159013, -0.5073544516326718, 0.8945515549474234, 0.3934554689139891, -0.07151830793353903, 0.6572236360570717, -0.17587553830477098, -0.2779480211946672, 0.3468986450418261, -0.1295179996181619, 0.8887287652512286, 0.00443802208802202, -0.08156041211122893, -0.6919121882088114, -0.715858765735644, 0.10398644568734383, 0.641470800241626, -0.9164768549378174, -0.01192893268923867, -0.28641241650365723, 0.3703493060577161, -0.06901976802500709, -0.5059034262973414, -0.8795139265930916, 0.6829438276452793, -0.11210133116332477, 0.9839430593070859, 0.7354492296085027, -0.3745636639128732, 0.03484312274134338, -0.40456492555988754, -0.3648672909055257, -0.23961222454133346, 0.7678261802534878, -0.17173131065040526, 0.06752179003752938, -0.147571943569333, -0.05378927589553517, -0.5285186061128688, -0.806491867179616, 0.48055609729398185, -0.8056399001295587, 0.5232260204526442, 0.6315284683905609, -0.7029588158166595, -0.6038968140323475, -0.11874129463648546, -0.5754487024421462, 0.15928346030717888, 0.42540128330433813, -0.28137240102849925, 0.4672488856755326, -0.706681833341106, 0.9285438065655256, 0.590137053053469, -0.3495753040491505, 0.6923424779347482, -0.974962517831198, 0.6322643296388674, -0.8530954352996135, -0.28697280785325646, 0.5659743227319085, 0.7888728608861395, -0.3954659459200649, 0.5750591511600815, 0.7352867100820608, -0.7846891635880884, 0.13466893379699285, -0.668125586194483, 0.6973394500854713, -0.5811757730971746, -0.9455953162647046, 0.6093313828928308, 0.7230165858475817, 0.5759353015072988, 0.7820396433708421, 0.22245394537846386, -0.8205439383966868, 0.06271854867197368, -0.8592833485822304, -0.7904422905065212, 0.07149184453065738, -0.7965753453527629, -0.6736943770740431, 0.6450941537710941, -0.45257661616363376, 0.9218013179421314, 0.8622554007736551, -0.7477351583559912, 0.1633109724728623, -0.7324531624544391, 0.5032149892960345, -0.6539088095343535, -0.4128886065556605, -0.4591559975496314, -0.7668996330872122, 0.7337923663242987, -0.7270684150277054, 0.18595692121355478, -0.20927629510764056, 0.7903453442661841, -0.3616588199645891, -0.6253099180129029, 0.13021473417297114, 0.2528012943902582, -0.6260445753592281, -0.31946929008002867, -0.18022435523499045, -0.2929910036355967, -0.19405045328741655, 0.6861315192327502, -0.21516497370004628, -0.6050707493000332, -0.18520428678656042, 0.12177726623378593, 0.4879265812103333, -0.06408151622541736, 0.29053446025332774, -0.027377396781859447, -0.6065962594191775, -0.5164384558127526, -0.40204099039579755, -0.06291570124283874, -0.1349265120658092, -0.3090205646299002, -0.5401893543738248, 0.9924724591228229, -0.5914463228303164, 0.1633650494484573, -0.5315027432037103, -0.6847879934612453, -0.9167881644486484, -0.5118745733848267, 0.24709519901611898, -0.42783489980342093, 0.15508242350837187, -0.7424359728593993, 0.5230740288432417, -0.6645546683487451, -0.5209045831677919, 0.605480432811611, 0.8720324579885759, -0.010578182859213347, 0.4551696414595021, -0.8626382256375251, -0.7617433910321916, 0.9808571276617826, 0.6432078164919854, 0.2811961893214576, 0.43676914061916466, 0.8402319678588897, -0.8683403573366069, 0.98277466650793, 0.8392295592499424, 0.5324269428684647, -0.5098826272337158, 0.4498394987119434, 0.7201886898403447, 0.10901297440187574, -0.26648652797993866, 0.5594756417063519, 0.7644691677415841, 0.7830733807281323, 0.6833984949075302, 0.05957953103563196, 0.8293248411628216, -0.24241314246086754, 0.5164820434106282, -0.6141300829289604, -0.058149252410572894, -0.8561437762048902, 0.15371898145077156, -0.9633900707095117, -0.15342377177367883, 0.36767929460624194, -0.3193562523216633, -0.6686033657421304, -0.7277152413361321, 1.0039186284433086, 0.45250518699608294, -0.6524784425182104, 0.5716769129358881, -0.9016358557391577, -0.37909971936244924, -0.7489403734099305, 0.4829665672382868, 0.3314468231120845, 0.8690043758728103, -0.7611959676071194, 0.6892214789317004, 0.3558061422965797, 0.6649489137912605, -0.5518265084453915, 0.5249083319749313, -0.7773105491601024, 0.9403302416282644, 0.4654401497920426, 0.32478479780361247, 0.08564319374424678, -0.46586104312404286, 0.4580785894045234, 0.14604581761408908, 0.677645772959121, -0.1214287540218022, -0.32444524889100035, 0.09354626968236257, 0.6718849544475032, 0.08784113151861828, 0.9441084539978133, -0.3711874397362829, -0.2162062327650176, -0.401825833410991, -0.8527253697516228, -0.7760392591104504, 0.5023949798073583, 0.14712533576988363, 0.4823685260567667, -0.9040769846341516, 0.6945166015168354, -0.5430364995875423, 0.33151926660238984, -0.006463163049980935, -0.7828972873951994, -0.7660804005250315, -0.8300254014149757, -0.2464293849308079, -0.8770799912419326, -0.8585154323874274, -0.01912011224646104, 0.986783527422207, 0.8249892211303818, -0.5541611123428691, 0.9987259736083287, -0.4018946970211046, 0.5964858001649707, -0.849926337819597, 0.6232041958944652, 0.8141178915966347, 0.30513883730630326, -0.7247741830126445, -0.5523424116222564, 0.7550627962863008, -0.4023081558896249, 0.03485512266755908, -0.563578368690512, 0.8939061097016143, -0.6633053994617721, -0.4044316459995807, -0.8155800837003087, -0.39629867316734924, -0.2638865035136915, -0.6868057363811182, -0.31413120622957424, -0.11330764919302094, -0.8416458745927533, -0.46798364454631547, 0.9294267763395068, -0.2382996455302889, -0.9519604664888546, -0.29265071151044086, -0.8032657622729527, 0.9434311238189459, -0.9483264128543205, -0.22476902485277092, 0.9738946954825811, 0.28028000071917325, 0.017573468452221075, -0.18332565915879795, 0.6046473898796489, -0.0028563537711416556, 0.8033565939444611, -0.9991567220273591, -0.5641809938607174, -0.06302101768684643, 0.35007731112056756, 0.5218370801158525, 0.027060044006792072, 0.03616338114816586, 0.4149755462601241, -0.2630487201498677, -0.4224017959570836, 0.8375256046784829, 0.6308187796953038, 0.5012205426796716, 0.3332221933380779, -0.18763406874689514, -0.8794309360969585, 0.14694407235418439, 0.6053842341922024, 0.09283928891081117, 0.0838822994348718, -0.46867267503669074, -0.9056239510866507, -0.37190037625903455, -0.8223163238567432, 0.0409868641882174, 0.6028037495627974, -0.6748245777229289]